#pragma once
#include <cstdarg>
namespace Eloquent2 {
    namespace ML2 {
        namespace Port2 {
            class RandomForest2 {
                public:
                    /**
                    * Predict class for features vector
                    */
                    int predict2(float *x) {
                        uint8_t votes[2] = { 0 };
                        // tree #1
                        if (x[1] <= 18.186765670776367) {
                            if (x[2] <= 119.11760330200195) {
                                if (x[2] <= 61.44726371765137) {
                                    votes[0] += 1;
                                }
                                else {
                                    if (x[1] <= 15.217429637908936) {
                                        votes[0] += 1;
                                    }
                                    else {
                                        if (x[3] <= 526.11328125) {
                                            votes[1] += 1;
                                        }
                                        else {
                                            votes[0] += 1;
                                        }
                                    }
                                }
                            }
                            else {
                                if (x[1] <= 16.808348655700684) {
                                    votes[0] += 1;
                                }
                                else {
                                    if (x[0] <= 4.612516403198242) {
                                        votes[1] += 1;
                                    }
                                    else {
                                        votes[0] += 1;
                                    }
                                }
                            }
                        }
                        else {
                            if (x[0] <= 2.897170901298523) {
                                votes[0] += 1;
                            }
                            else {
                                if (x[0] <= 3.39356791973114) {
                                    if (x[0] <= 3.2061476707458496) {
                                        votes[1] += 1;
                                    }
                                    else {
                                        votes[0] += 1;
                                    }
                                }
                                else {
                                    votes[1] += 1;
                                }
                            }
                        }
                        // tree #2
                        if (x[3] <= 579.7738037109375) {
                            if (x[1] <= 17.446775436401367) {
                                if (x[1] <= 15.216664791107178) {
                                    if (x[1] <= 13.70360517501831) {
                                        votes[0] += 1;
                                    }
                                    else {
                                        if (x[3] <= 518.2551879882812) {
                                            votes[1] += 1;
                                        }
                                        else {
                                            votes[0] += 1;
                                        }
                                    }
                                }
                                else {
                                    if (x[2] <= 74.98036193847656) {
                                        votes[1] += 1;
                                    }
                                    else {
                                        if (x[1] <= 15.264512538909912) {
                                            votes[1] += 1;
                                        }
                                        else {
                                            votes[0] += 1;
                                        }
                                    }
                                }
                            }
                            else {
                                if (x[2] <= 36.46379089355469) {
                                    votes[0] += 1;
                                }
                                else {
                                    if (x[0] <= 3.39356791973114) {
                                        if (x[0] <= 3.2061476707458496) {
                                            if (x[1] <= 19.854721069335938) {
                                                if (x[1] <= 18.31907844543457) {
                                                    votes[1] += 1;
                                                }
                                                else {
                                                    votes[0] += 1;
                                                }
                                            }
                                            else {
                                                votes[1] += 1;
                                            }
                                        }
                                        else {
                                            votes[0] += 1;
                                        }
                                    }
                                    else {
                                        votes[1] += 1;
                                    }
                                }
                            }
                        }
                        else {
                            if (x[3] <= 617.8102722167969) {
                                if (x[2] <= 175.02994537353516) {
                                    if (x[0] <= 3.6137372255325317) {
                                        votes[0] += 1;
                                    }
                                    else {
                                        if (x[3] <= 615.1486511230469) {
                                            votes[1] += 1;
                                        }
                                        else {
                                            if (x[3] <= 615.8606262207031) {
                                                votes[0] += 1;
                                            }
                                            else {
                                                votes[1] += 1;
                                            }
                                        }
                                    }
                                }
                                else {
                                    if (x[0] <= 4.804242134094238) {
                                        votes[1] += 1;
                                    }
                                    else {
                                        votes[0] += 1;
                                    }
                                }
                            }
                            else {
                                votes[1] += 1;
                            }
                        }
                        // tree #3
                        if (x[1] <= 18.99317741394043) {
                            if (x[0] <= 4.399055480957031) {
                                if (x[0] <= 3.6417821645736694) {
                                    votes[0] += 1;
                                }
                                else {
                                    if (x[0] <= 3.7420947551727295) {
                                        votes[1] += 1;
                                    }
                                    else {
                                        votes[0] += 1;
                                    }
                                }
                            }
                            else {
                                if (x[2] <= 121.41523361206055) {
                                    if (x[0] <= 4.597213268280029) {
                                        votes[1] += 1;
                                    }
                                    else {
                                        votes[0] += 1;
                                    }
                                }
                                else {
                                    if (x[1] <= 17.816720008850098) {
                                        votes[0] += 1;
                                    }
                                    else {
                                        votes[1] += 1;
                                    }
                                }
                            }
                        }
                        else {
                            if (x[2] <= 86.07643508911133) {
                                if (x[3] <= 569.5430908203125) {
                                    votes[1] += 1;
                                }
                                else {
                                    votes[0] += 1;
                                }
                            }
                            else {
                                if (x[3] <= 615.8606262207031) {
                                    if (x[0] <= 6.035356760025024) {
                                        votes[1] += 1;
                                    }
                                    else {
                                        votes[0] += 1;
                                    }
                                }
                                else {
                                    votes[1] += 1;
                                }
                            }
                        }
                        // tree #4
                        if (x[1] <= 18.068153381347656) {
                            if (x[2] <= 66.4501838684082) {
                                if (x[3] <= 521.5908508300781) {
                                    votes[0] += 1;
                                }
                                else {
                                    if (x[3] <= 521.7350463867188) {
                                        votes[1] += 1;
                                    }
                                    else {
                                        votes[0] += 1;
                                    }
                                }
                            }
                            else {
                                if (x[1] <= 16.768722534179688) {
                                    if (x[2] <= 69.92528915405273) {
                                        if (x[1] <= 12.785769939422607) {
                                            votes[0] += 1;
                                        }
                                        else {
                                            votes[1] += 1;
                                        }
                                    }
                                    else {
                                        if (x[0] <= 4.456039190292358) {
                                            votes[0] += 1;
                                        }
                                        else {
                                            if (x[0] <= 4.46658182144165) {
                                                votes[1] += 1;
                                            }
                                            else {
                                                votes[0] += 1;
                                            }
                                        }
                                    }
                                }
                                else {
                                    if (x[1] <= 16.997260093688965) {
                                        votes[1] += 1;
                                    }
                                    else {
                                        votes[0] += 1;
                                    }
                                }
                            }
                        }
                        else {
                            if (x[0] <= 3.39356791973114) {
                                if (x[3] <= 575.4673461914062) {
                                    if (x[0] <= 2.7970930337905884) {
                                        votes[0] += 1;
                                    }
                                    else {
                                        if (x[0] <= 3.2061476707458496) {
                                            votes[1] += 1;
                                        }
                                        else {
                                            votes[0] += 1;
                                        }
                                    }
                                }
                                else {
                                    votes[0] += 1;
                                }
                            }
                            else {
                                if (x[3] <= 615.8606262207031) {
                                    if (x[0] <= 6.035356760025024) {
                                        votes[1] += 1;
                                    }
                                    else {
                                        votes[0] += 1;
                                    }
                                }
                                else {
                                    votes[1] += 1;
                                }
                            }
                        }
                        // tree #5
                        if (x[3] <= 596.6951293945312) {
                            if (x[3] <= 535.679443359375) {
                                if (x[0] <= 3.6417821645736694) {
                                    votes[0] += 1;
                                }
                                else {
                                    if (x[2] <= 104.46635055541992) {
                                        if (x[1] <= 13.477831363677979) {
                                            votes[0] += 1;
                                        }
                                        else {
                                            if (x[1] <= 14.552810192108154) {
                                                if (x[0] <= 4.294159889221191) {
                                                    votes[0] += 1;
                                                }
                                                else {
                                                    votes[1] += 1;
                                                }
                                            }
                                            else {
                                                votes[1] += 1;
                                            }
                                        }
                                    }
                                    else {
                                        if (x[3] <= 524.2666625976562) {
                                            votes[0] += 1;
                                        }
                                        else {
                                            if (x[2] <= 139.46819305419922) {
                                                votes[0] += 1;
                                            }
                                            else {
                                                if (x[0] <= 4.511480093002319) {
                                                    votes[1] += 1;
                                                }
                                                else {
                                                    votes[0] += 1;
                                                }
                                            }
                                        }
                                    }
                                }
                            }
                            else {
                                if (x[1] <= 17.927279472351074) {
                                    votes[0] += 1;
                                }
                                else {
                                    if (x[3] <= 586.7367858886719) {
                                        if (x[0] <= 2.75037944316864) {
                                            votes[0] += 1;
                                        }
                                        else {
                                            if (x[1] <= 18.99317741394043) {
                                                if (x[2] <= 92.03459548950195) {
                                                    votes[0] += 1;
                                                }
                                                else {
                                                    votes[1] += 1;
                                                }
                                            }
                                            else {
                                                votes[1] += 1;
                                            }
                                        }
                                    }
                                    else {
                                        votes[0] += 1;
                                    }
                                }
                            }
                        }
                        else {
                            if (x[3] <= 628.3935241699219) {
                                if (x[3] <= 615.1486511230469) {
                                    votes[1] += 1;
                                }
                                else {
                                    if (x[3] <= 615.8606262207031) {
                                        votes[0] += 1;
                                    }
                                    else {
                                        if (x[3] <= 616.745849609375) {
                                            votes[1] += 1;
                                        }
                                        else {
                                            votes[0] += 1;
                                        }
                                    }
                                }
                            }
                            else {
                                votes[1] += 1;
                            }
                        }
                        // tree #6
                        if (x[3] <= 582.7814331054688) {
                            if (x[1] <= 16.82194995880127) {
                                if (x[0] <= 3.898241639137268) {
                                    votes[0] += 1;
                                }
                                else {
                                    if (x[2] <= 65.03486633300781) {
                                        votes[1] += 1;
                                    }
                                    else {
                                        votes[0] += 1;
                                    }
                                }
                            }
                            else {
                                if (x[0] <= 3.486794352531433) {
                                    if (x[3] <= 528.0460205078125) {
                                        votes[1] += 1;
                                    }
                                    else {
                                        if (x[3] <= 549.7635803222656) {
                                            if (x[2] <= 67.1367301940918) {
                                                votes[0] += 1;
                                            }
                                            else {
                                                if (x[0] <= 3.1594340801239014) {
                                                    votes[1] += 1;
                                                }
                                                else {
                                                    votes[0] += 1;
                                                }
                                            }
                                        }
                                        else {
                                            votes[1] += 1;
                                        }
                                    }
                                }
                                else {
                                    if (x[1] <= 17.722278594970703) {
                                        if (x[3] <= 526.7999572753906) {
                                            votes[1] += 1;
                                        }
                                        else {
                                            votes[0] += 1;
                                        }
                                    }
                                    else {
                                        votes[1] += 1;
                                    }
                                }
                            }
                        }
                        else {
                            if (x[0] <= 3.67454195022583) {
                                votes[0] += 1;
                            }
                            else {
                                if (x[1] <= 19.14149284362793) {
                                    votes[0] += 1;
                                }
                                else {
                                    if (x[3] <= 616.925048828125) {
                                        if (x[0] <= 6.035356760025024) {
                                            votes[1] += 1;
                                        }
                                        else {
                                            votes[0] += 1;
                                        }
                                    }
                                    else {
                                        votes[1] += 1;
                                    }
                                }
                            }
                        }
                        // tree #7
                        if (x[3] <= 577.8170471191406) {
                            if (x[0] <= 3.486794352531433) {
                                if (x[3] <= 549.4099731445312) {
                                    if (x[1] <= 17.617198944091797) {
                                        votes[0] += 1;
                                    }
                                    else {
                                        if (x[0] <= 2.0273662209510803) {
                                            votes[1] += 1;
                                        }
                                        else {
                                            if (x[1] <= 19.555073738098145) {
                                                votes[0] += 1;
                                            }
                                            else {
                                                votes[1] += 1;
                                            }
                                        }
                                    }
                                }
                                else {
                                    if (x[2] <= 79.57589721679688) {
                                        votes[1] += 1;
                                    }
                                    else {
                                        votes[0] += 1;
                                    }
                                }
                            }
                            else {
                                if (x[0] <= 4.5494704246521) {
                                    if (x[0] <= 4.452358961105347) {
                                        if (x[3] <= 553.3420715332031) {
                                            if (x[1] <= 14.981614112854004) {
                                                votes[0] += 1;
                                            }
                                            else {
                                                if (x[2] <= 105.85898971557617) {
                                                    votes[1] += 1;
                                                }
                                                else {
                                                    if (x[3] <= 541.328125) {
                                                        votes[1] += 1;
                                                    }
                                                    else {
                                                        votes[0] += 1;
                                                    }
                                                }
                                            }
                                        }
                                        else {
                                            votes[1] += 1;
                                        }
                                    }
                                    else {
                                        votes[1] += 1;
                                    }
                                }
                                else {
                                    votes[0] += 1;
                                }
                            }
                        }
                        else {
                            if (x[1] <= 18.82244873046875) {
                                votes[0] += 1;
                            }
                            else {
                                if (x[3] <= 615.8606262207031) {
                                    if (x[0] <= 5.619837045669556) {
                                        if (x[0] <= 3.6156500577926636) {
                                            votes[0] += 1;
                                        }
                                        else {
                                            votes[1] += 1;
                                        }
                                    }
                                    else {
                                        votes[0] += 1;
                                    }
                                }
                                else {
                                    votes[1] += 1;
                                }
                            }
                        }
                        // tree #8
                        if (x[1] <= 17.617198944091797) {
                            if (x[1] <= 17.446775436401367) {
                                if (x[1] <= 15.216664791107178) {
                                    votes[0] += 1;
                                }
                                else {
                                    if (x[0] <= 4.51405668258667) {
                                        if (x[1] <= 15.637207508087158) {
                                            votes[1] += 1;
                                        }
                                        else {
                                            votes[0] += 1;
                                        }
                                    }
                                    else {
                                        votes[0] += 1;
                                    }
                                }
                            }
                            else {
                                if (x[0] <= 2.8352335691452026) {
                                    votes[0] += 1;
                                }
                                else {
                                    votes[1] += 1;
                                }
                            }
                        }
                        else {
                            if (x[0] <= 2.961495518684387) {
                                if (x[3] <= 529.9505920410156) {
                                    votes[1] += 1;
                                }
                                else {
                                    votes[0] += 1;
                                }
                            }
                            else {
                                if (x[1] <= 17.98777198791504) {
                                    votes[0] += 1;
                                }
                                else {
                                    votes[1] += 1;
                                }
                            }
                        }
                        // tree #9
                        if (x[3] <= 579.7738037109375) {
                            if (x[0] <= 3.636846899986267) {
                                if (x[1] <= 20.354084014892578) {
                                    if (x[3] <= 521.5908508300781) {
                                        votes[0] += 1;
                                    }
                                    else {
                                        if (x[3] <= 521.7350463867188) {
                                            votes[1] += 1;
                                        }
                                        else {
                                            votes[0] += 1;
                                        }
                                    }
                                }
                                else {
                                    votes[1] += 1;
                                }
                            }
                            else {
                                if (x[1] <= 16.67409610748291) {
                                    if (x[2] <= 78.26370620727539) {
                                        if (x[2] <= 58.64484977722168) {
                                            votes[0] += 1;
                                        }
                                        else {
                                            if (x[1] <= 12.842352390289307) {
                                                votes[0] += 1;
                                            }
                                            else {
                                                votes[1] += 1;
                                            }
                                        }
                                    }
                                    else {
                                        if (x[3] <= 526.3016052246094) {
                                            if (x[3] <= 526.0163269042969) {
                                                votes[0] += 1;
                                            }
                                            else {
                                                votes[1] += 1;
                                            }
                                        }
                                        else {
                                            votes[0] += 1;
                                        }
                                    }
                                }
                                else {
                                    if (x[0] <= 4.670212507247925) {
                                        votes[1] += 1;
                                    }
                                    else {
                                        votes[0] += 1;
                                    }
                                }
                            }
                        }
                        else {
                            if (x[1] <= 18.82244873046875) {
                                votes[0] += 1;
                            }
                            else {
                                if (x[2] <= 86.07643508911133) {
                                    votes[0] += 1;
                                }
                                else {
                                    if (x[0] <= 6.517630577087402) {
                                        votes[1] += 1;
                                    }
                                    else {
                                        if (x[0] <= 6.540246963500977) {
                                            votes[0] += 1;
                                        }
                                        else {
                                            votes[1] += 1;
                                        }
                                    }
                                }
                            }
                        }
                        // tree #10
                        if (x[3] <= 579.7666015625) {
                            if (x[3] <= 538.3499145507812) {
                                if (x[1] <= 16.52023220062256) {
                                    if (x[1] <= 15.40810251235962) {
                                        votes[0] += 1;
                                    }
                                    else {
                                        if (x[3] <= 514.5715942382812) {
                                            votes[1] += 1;
                                        }
                                        else {
                                            votes[0] += 1;
                                        }
                                    }
                                }
                                else {
                                    if (x[3] <= 532.0564575195312) {
                                        votes[1] += 1;
                                    }
                                    else {
                                        votes[0] += 1;
                                    }
                                }
                            }
                            else {
                                if (x[1] <= 18.10638427734375) {
                                    votes[0] += 1;
                                }
                                else {
                                    if (x[1] <= 19.86520481109619) {
                                        if (x[0] <= 3.8649163246154785) {
                                            votes[0] += 1;
                                        }
                                        else {
                                            votes[1] += 1;
                                        }
                                    }
                                    else {
                                        votes[1] += 1;
                                    }
                                }
                            }
                        }
                        else {
                            if (x[2] <= 99.43420028686523) {
                                votes[0] += 1;
                            }
                            else {
                                if (x[1] <= 18.82244873046875) {
                                    votes[0] += 1;
                                }
                                else {
                                    if (x[3] <= 616.925048828125) {
                                        if (x[3] <= 615.1486511230469) {
                                            votes[1] += 1;
                                        }
                                        else {
                                            votes[0] += 1;
                                        }
                                    }
                                    else {
                                        votes[1] += 1;
                                    }
                                }
                            }
                        }
                        // return argmax of votes
                        uint8_t classIdx = 0;
                        float maxVotes = votes[0];
                        for (uint8_t i = 1; i < 2; i++) {
                            if (votes[i] > maxVotes) {
                                classIdx = i;
                                maxVotes = votes[i];
                            }
                        }
                        return classIdx;
                    }
                protected:
                };
            }
        }
    }
